0.727775
-0.63976
-0.629688
-0.11008
0.864559
0.792779
0.0953703
0.995117
0.665639
-0.831172
0.242286
0.888791
-0.499191
0.556017
0.0786462
0.359233
-0.767083
-0.316996
-0.534288
0.679006
0.475021
0.418928
0.672292
0.4138
0.413678
-0.447432
-0.713981
-0.0614948
-0.488632
-0.0646077
-0.965026
0.222144
-0.599231
0.0498978
-0.668264
-0.554064
-0.718314
0.066805
-0.647084
0.0146794
-0.864254
-0.547594
-0.534043
-0.4738
-0.930845
0.189795
-0.183569
0.259499
-0.902707
0.675466
0.887875
0.745537
0.682852
0.354167
-0.153478
-0.0176702
0.340617
0.155065
-0.51561
-0.142979
0.6245
-0.358989
0.49797
0.94879
-0.691824
-0.234596
0.774468
0.6433
-0.765252
-0.791009
0.0119938
0.510849
0.0361034
0.159154
-0.600391
0.731315
0.931516
0.681875
0.568407
-0.0755944
0.523484
0.583544
0.256447
0.403973
-0.714347
-0.801935
-0.802911
0.76397
0.0542314
-0.837092
-0.958129
0.359478
0.835505
-0.754936
0.13126
-0.755974
-0.757195
0.280923
-0.0743126
0.127415
0.874996
-0.708182
0.909055
-0.0856655
0.947996
-0.162206
-0.222755
-0.611072
-0.506455
-0.327982
0.724967
0.60509
-0.563219
-0.241371
0.641835
0.547105
-0.135228
-0.283547
-0.968261
0.622242
-0.807428
0.308267
0.00296032
0.0509354
0.740226
0.484115
-0.117405
0.600147
0.297586
0.888607
-0.63451
0.28544
0.171484
0.481185
0.933164
0.581469
0.181494
0.0737022
0.338725
0.663015
0.49913
-0.937315
0.659169
0.499435
0.615894
-0.224586
-0.49266
0.468001
0.752678
0.491745
0.216956
-0.950682
-0.976928
-0.796319
0.812128
-0.832331
0.663137
-0.823054
-0.424482
0.73809
0.639943
0.374371
-0.974181
-0.017365
-0.0481887
-0.194128
-0.881771
-0.920347
0.932127
0.866878
-0.519822
0.706717
-0.130345
0.727042
-0.505661
-0.959349
0.258095
-0.167638
0.0422682
-0.222266
0.296609
0.933042
0.384625
-0.0616779
0.578173
0.676809
-0.436384
0.643117
-0.679312
-0.867489
0.384991
0.898862
0.538682
-0.910276
0.980956
-0.194006
-0.560778
0.400372
0.374737
-0.44261
0.656178
0.527818
-0.916379
0.879635
0.174535
0.0216377
0.944273
0.807001
0.259743
0.980834
-0.0269479
-0.650685
-0.296854
-0.432417
-0.925291
0.617908
0.696097
0.634877
0.410749
0.969359
0.645558
-0.471175
0.239967
-0.266823
0.243812
-0.869442
0.04532
-0.917173
0.104648
-0.802118
0.757561
0.614002
-0.722343
0.0707724
-0.111057
-0.807489
-0.0447707
-0.19779
0.390667
-0.365337
-0.121921
-0.630238
-0.847713
0.538499
0.657826
-0.972228
0.0494095
0.64391
0.721366
-0.610645
0.234169
-0.4962
0.230628
-0.401654
0.385235
-0.248268
0.278359
0.397015
-0.785577
-0.563646
-0.835261
0.545824
0.456771
0.303079
-0.196936
-0.142796
0.0197455
-0.404889
0.566088
-0.0953093
0.105869
0.93646
0.887631
0.47026
0.120029
0.859493
-0.0708945
0.792718
-0.825434
0.539598
-0.373699
-0.320536
0.00491345
-0.700552
0.426435
-0.456343
-0.893124
-0.554979
-0.970214
0.429853
0.910459
0.996338
0.447737
-0.909726
0.799982
-0.124973
-0.310953
-0.825007
0.795465
0.112217
-0.232398
0.538743
-0.425703
0.161901
-0.907712
-0.107822
0.706412
-0.339396
0.49321
0.252846
-0.826716
-0.101352
0.00729394
-0.407941
-0.188513
-0.886471
-0.31901
0.494614
-0.303629
0.59209
-0.884091
0.769646
0.557238
0.674368
-0.293313
-0.0115055
-0.584582
0.0901822
0.882138
0.0102237
-0.742424
-0.810419
0.663137
0.557848
0.555956
0.630909
-0.150304
-0.0917081
-0.55034
0.0874355
0.149022
-0.242409
-0.601794
0.537339
-0.442732
0.325053
0.120029
0.697317
-0.691519
0.757317
0.629017
-0.836848
-0.298379
0.896542
0.181066
0.820795
-0.880306
-0.526292
-0.0567949
-0.912107
0.874142
0.657765
0.393536
-0.301675
-0.0697958
0.748344
0.896359
0.214209
-0.733451
-0.784295
0.677541
-0.519517
-0.842158
-0.0869473
-0.85229
-0.64391
0.754509
0.206397
0.756584
-0.151402
0.964843
-0.421552
-0.568529
-0.952513
0.903745
-0.466475
-0.8858
0.76574
-0.780206
0.864925
0.207068
0.449324
0.61449
-0.65154
0.742302
0.920652
0.864193
-0.074984
0.0863979
0.514634
0.660024
0.432478
-0.00784326
-0.826655
-0.424421
0.952025
0.810663
-0.940855
0.476241
-0.170202
-0.32371
-0.749626
-0.317362
0.436995
0.476669
-0.918638
-0.799738
-0.26957
0.420026
-0.31016
0.682546
-0.538255
0.860225
0.963195
0.238746
-0.779778
0.166906
-0.293191
0.786065
0.935057
-0.122043
-0.769768
0.578356
-0.525376
-0.50206
-0.311625
0.143834
-0.725272
0.658864
0.37022
0.0620441
0.257851
-0.390851
-0.519944
-0.130833
0.367351
-0.136082
-0.561022
0.405011
-0.223792
-0.173254
-0.732597
0.913694
0.834895
-0.802545
0.612964
-0.788934
0.81933
0.977172
0.985046
0.230995
-0.45732
0.88348
0.758965
-0.737663
0.89288
0.988647
-0.487777
-0.808893
0.357585
-0.607654
0.254982
0.0577716
-0.398663
0.742851
-0.881893
0.244362
0.155065
-0.582629
-0.939756
-0.839595
0.861385
-0.791681
-0.862789
-0.516831
-0.0785241
-0.44377
0.669179
-0.319926
-0.60564
-0.377544
0.988159
-0.747673
0.843806
-0.485946
0.379254
0.52562
0.750664
0.4138
0.416669
0.410932
0.48088
0.928404
0.167394
0.0444044
0.614978
0.348308
-0.336222
0.618824
0.704642
-0.371197
0.208838
0.71868
0.516953
-0.0928068
0.0752281
-0.528306
-0.170446
-0.632923
-0.837703
0.829707
0.839229
0.263222
-0.828242
-0.709891
0.245705
0.918638
0.865719
0.372051
-0.92523
0.507309
0.969481
0.158483
-0.698782
-0.565905
0.281045
-0.782586
-0.664724
-0.874813
-0.449812
-0.848689
-0.674245
0.823908
0.303568
0.82812
0.706351
0.68804
0.978759
-0.855708
-0.700552
0.584216
-0.638844
0.491012
-0.344401
0.690176
0.430219
0.392743
0.815485
0.0409863
-0.391095
-0.00497454
0.0975066
-0.583117
-0.649281
0.555773
0.873348
0.266213
-0.380047
0.253212
-0.605701
0.476424
-0.170324
0.622669
0.731437
0.804743
0.798944
0.93469
0.890255
0.781915
0.291849
-0.172887
-0.834895
-0.0992157
0.701956
0.50383
-0.206336
0.90289
0.442427
0.811518
0.974486
0.974731
-0.392926
0.50914
0.310648
-0.332926
-0.537645
-0.959655
0.741935
-0.650624
0.334697
