0.158239
-0.533372
0.252358
0.456771
-0.923948
-0.230689
0.28898
-0.827082
-0.531297
-0.0906094
-0.909299
-0.425153
0.423505
0.817194
0.289224
0.499008
-0.763115
0.186316
-0.945494
0.682302
-0.0433058
0.0971404
-0.524888
-0.128086
0.303201
-0.497177
-0.651784
-0.295572
-0.718314
0.642262
-0.807184
-0.0829188
0.799249
-0.559679
-0.702322
0.453047
-0.403119
0.959532
-0.382977
-0.97528
0.812128
-0.0356151
0.32664
0.695791
-0.518479
-0.337626
-0.147801
-0.95465
-0.701834
0.682363
0.183264
-0.522874
0.935057
-0.645924
0.284402
0.235023
-0.752739
-0.648793
-0.583178
-0.311502
-0.333781
-0.240089
-0.817377
-0.549608
-0.903195
-0.364483
0.10416
-0.111484
-0.367962
0.110507
-0.696707
0.61211
-0.423994
0.700003
0.221473
-0.844234
0.320353
0.532273
0.954405
0.989929
0.551134
-0.855403
-0.308206
-0.410443
0.711051
-0.395734
-0.954711
0.679189
-0.0516068
0.50267
0.132176
-0.767449
-0.633961
-0.542222
0.318277
-0.507248
0.212378
-0.208045
-0.565722
-0.42613
0.325724
0.448286
0.2772
-0.792596
-0.854671
0.207434
0.208777
0.195654
0.601428
0.268288
-0.335185
0.134495
0.196265
0.253822
0.386761
0.968444
-0.410504
-0.294595
-0.811335
0.940001
0.999817
0.12833
0.0716269
-0.503708
0.735343
-0.350078
0.498215
-0.285012
0.165624
-0.646168
0.640309
-0.187658
-0.552538
-0.647267
-0.589099
0.295938
0.317179
-0.338603
0.0950041
0.323954
0.476058
-0.874813
0.393841
-0.17832
0.191443
-0.941038
-0.283914
-0.605823
0.125584
-0.507248
-0.868038
0.71746
0.274575
0.193091
-0.922971
0.279092
0.793878
0.839351
-0.923154
0.811945
0.556017
0.599902
-0.732292
-0.0180364
-0.662526
0.821955
0.577868
-0.904538
-0.0530106
-0.103122
0.380779
-0.61156
-0.392621
0.364238
-0.566027
0.460311
0.904172
-0.68395
0.915586
0.414777
-0.387127
0.164769
-0.629627
0.270424
-0.281899
0.836787
0.379498
0.202857
0.935972
0.45439
0.764519
0.181982
-0.94702
-0.431562
0.1395
0.565783
0.39494
0.00424206
-0.376873
-0.786126
0.735282
-0.616565
0.523728
0.683157
-0.0409864
0.383709
0.808832
0.0677816
0.792596
-0.20011
-0.860103
0.502548
0.760979
-0.593066
0.825251
0.641102
-0.437788
0.9494
-0.434431
0.69573
-0.565355
0.633717
0.377789
-0.644887
0.0939665
0.965697
-0.215552
-0.068453
-0.0360423
0.5927
-0.913511
-0.207617
0.131016
-0.309366
0.45262
-0.657033
-0.354411
-0.692129
-0.863033
0.622547
-0.0151067
-0.770989
0.138829
0.575793
-0.51268
-0.0800501
0.615589
-0.936827
-0.427229
-0.881588
0.362957
0.67156
-0.440168
0.631031
-0.326823
0.388104
-0.10593
-0.100314
0.885495
0.200415
0.59801
-0.0994598
0.939634
0.6845
0.757012
-0.0630207
-0.753594
0.643849
-0.147496
0.890194
0.187353
0.861385
0.755303
-0.511521
0.554491
-0.972472
-0.808344
-0.840571
-0.754143
-0.093173
0.654653
-0.731437
0.770318
-0.258705
0.879513
0.872616
0.985778
0.422834
-0.379009
-0.0186468
0.585131
0.0702231
-0.326029
-0.159581
-0.0577716
0.231178
-0.611011
-0.58153
-0.910703
0.993347
0.949095
-0.172277
0.706717
-0.733818
-0.224891
-0.642933
-0.727897
0.582018
-0.627125
0.181555
-0.816523
-0.0210883
0.933958
0.809748
-0.334086
0.528367
0.00259411
-0.667959
-0.722831
-0.930296
-0.477706
-0.467513
-0.17716
-0.285257
-0.426801
0.925657
0.494247
0.683462
-0.886654
0.782647
0.0414137
-0.965148
0.0368968
-0.792596
-0.205786
0.854976
0.860591
-0.673513
-0.657033
-0.536424
0.351909
-0.345683
-0.307962
-0.79577
0.411603
0.697195
-0.301553
-0.622669
0.521653
0.857662
0.450972
-0.0854824
-0.869747
0.561205
0.341472
-0.141392
0.501633
0.683828
-0.279458
-0.890316
0.696951
-0.0876186
-0.388958
-0.349406
-0.387616
0.0238349
-0.715018
0.858028
0.540941
-0.12888
0.988952
0.574999
-0.79577
-0.464034
-0.263466
0.984252
0.383343
-0.311502
-0.520371
-0.655263
-0.0416577
0.716178
-0.0294504
0.654225
-0.82812
-0.814814
-0.371136
0.299356
0.927
0.196203
0.724174
-0.242347
0.932798
-0.803217
0.187719
-0.588061
-0.489486
-0.185827
0.365825
-0.45909
0.872127
-0.730949
-0.973327
-0.452193
-0.316263
-0.065096
0.934141
0.490036
-0.272561
0.603381
0.299661
0.971801
0.472396
0.0200506
0.42674
-0.536973
0.369427
0.251808
-0.142003
-0.893857
0.546312
-0.53795
0.205115
0.527451
-0.16129
0.272317
-0.737358
0.237526
0.017487
-0.0616779
-0.728629
0.351482
-0.225196
0.809931
0.901425
0.69982
-0.903073
-0.503891
-0.376446
-0.0237739
-0.416669
-0.843806
-0.914182
0.859004
-0.666982
0.0920744
-0.412885
-0.16068
-0.29075
0.703055
-0.538987
0.319376
0.295816
-0.13242
0.183081
0.541856
-0.642628
0.812128
-0.988037
0.914853
0.116123
-0.468307
-0.0204169
0.293191
0.156896
-0.176977
-0.959716
-0.220496
0.274636
-0.00601214
0.193518
-0.392926
0.0748008
-0.689138
0.390973
-0.332255
0.64098
-0.752922
0.0419019
-0.753716
-0.419477
-0.405744
0.928587
0.524705
0.762688
0.499924
0.34373
-0.581835
0.0596026
0.492904
-0.410077
-0.418012
-0.38139
0.391095
-0.336283
-0.636097
-0.155492
0.252297
0.7022
-0.332316
0.820612
-0.772027
-0.63628
-0.98529
0.491562
-0.0417798
-0.692557
0.690542
-0.787469
-0.258828
0.545763
-0.0636311
0.424909
-0.241554
0.0196234
-0.526963
0.334452
-0.712394
-0.790521
-0.0810877
0.907346
-0.0334178
-0.406659
0.665334
-0.506088
0.170629
-0.234901
-0.228797
-0.605029
0.565355
-0.974303
0.440046
0.680654
0.898007
-0.740471
0.641163
-0.423139
-0.910581
-0.0921354
-0.561998
-0.269875
0.689627
-0.146641
0.58623
-0.336283
-0.241554
-0.973571
0.963317
-0.262062
-0.76458
-0.452742
0.393414
0.926939
-0.140416
-0.784845
0.428632
0.723746
-0.296915
-0.841548
0.650014
-0.530808
-0.0251778
0.0494705
-0.832759
0.439985
-0.210913
0.10239
-0.506211
-0.913755
-0.273659
0.400372
-0.944517
0.678762
-0.817438
0.131626
-0.840205
-0.321085
0.621876
-0.642201
0.259133
-0.183508
0.594287
0.210974
-0.388836
-0.641896
-0.820368
0.812067
0.7716
0.880367
-0.0808435
-0.274148
-0.519333
-0.141636
-0.701773
-0.23722
-0.492416
-0.615833
-0.157567
0.940977
-0.986328
-0.673818
-0.110935
-0.578967
0.998291
-0.757683
0.0974456
0.226417
0.388531
-0.640187
-0.240638
0.560533
-0.663442
0.933958
0.97351
-0.465194
-0.713553
0.297891
-0.255104
-0.880795
-0.627552
-0.083163
0.0735191
0.127598
-0.287515
0.758415
0.0928068
0.0510575
-0.841731
-0.708304
0.322001
-0.844172
0.127598
-0.867306
-0.246437
-0.210181
0.561998
0.871151
-0.738578
-0.445906
-0.965697
0.271706
0.266701
-0.0630207
0.63152
0.418805
-0.517808
-0.0978118
0.154515
0.83227
-0.420209
0.73986
0.816034
-0.375103
-0.0320139
-0.0163274
-0.261391
-0.742058
0.776177
-0.293069
0.316691
-0.294229
0.609241
-0.489731
0.503342
-0.155675
-0.366619
-0.487106
-0.913755
0.873959
0.557238
-0.339335
-0.9859
0.590136
-0.930906
0.662709
-0.163732
0.314737
0.294717
0.869686
0.318216
-0.700858
0.836177
0.405683
-0.704764
0.413251
0.955992
0.867122
-0.172765
-0.0683309
0.467879
-0.100314
0.716239
-0.769646
0.897214
0.967345
0.45024
-0.794122
-0.526658
-0.374981
-0.365154
-0.219703
0.497238
-0.158116
0.531602
-0.338786
-0.434492
0.304178
0.740654
0.453719
0.308451
0.577441
0.824763
0.258827
0.412091
0.63567
0.765679
0.421613
0.971069
0.80517
-0.247047
-0.133641
0.732902
-0.718131
0.883785
-0.751701
0.893246
-0.00442517
0.818903
0.233985
0.504196
0.634449
0.95941
0.223243
-0.441328
-0.357219
-0.295999
-0.175085
-0.187109
0.00302136
0.352397
-0.600574
0.409467
0.61626
0.214148
-0.0204169
0.364238
-0.907895
-0.511643
0.883236
0.978576
0.7622
-0.525376
-0.6704
0.239723
-0.272378
0.678823
0.372661
0.272805
0.755242
0.375774
0.462142
-0.0951262
-0.166784
0.191565
0.947264
-0.594165
0.199866
-0.732047
0.833491
-0.532945
0.718497
-0.598071
0.348674
0.211524
0.43083
-0.401654
-0.128025
0.963866
-0.773431
0.993957
-0.487472
-0.967223
0.629627
0.209449
0.830866
0.468612
-0.705374
-0.136692
-0.77752
0.331462
-0.700064
0.945006
-0.951598
0.551195
0.817865
0.0513016
0.175207
-0.443648
-0.522263
0.548998
0.738029
-0.76458
-0.267556
-0.274697
-0.0613727
-0.207434
0.541002
0.989318
-0.308634
0.0601519
0.680288
-0.813288
0.928831
-0.168737
-0.00143439
0.0904263
-0.619678
-0.225929
-0.0776696
0.128941
0.636097
-0.509568
-0.47026
-0.583605
-0.691946
-0.718192
0.503159
0.144932
0.101901
0.18479
-0.727165
-0.596423
-0.389203
-0.161534
-0.335185
0.485092
0.645253
0.746452
0.364727
-0.256569
-0.984985
-0.256813
0.00906396
0.047029
-0.133091
0.284524
-0.636036
0.236915
0.9588
0.74694
0.594714
-0.804865
0.621448
0.68218
0.413923
-0.321085
0.896725
0.0241401
-0.158605
-0.835078
0.746086
0.71392
-0.421674
0.976806
0.918638
-0.655324
0.322672
0.587695
-0.707511
0.38847
-0.660939
-0.838252
0.501144
0.567492
-0.405377
-0.603626
0.656728
-0.0675375
0.773919
-0.272866
0.98468
0.210791
0.485092
-0.0408033
-0.820063
-0.014008
0.970458
0.386334
0.299356
-0.727348
-0.36729
-0.538377
0.000640869
-0.952391
0.690664
0.0804163
-0.0576495
0.301248
0.27604
-0.46025
0.15598
0.170141
0.284463
-0.764031
0.203711
-0.285012
-0.707572
-0.837092
-0.0666219
0.905271
-0.740226
0.136143
0.27073
0.473495
0.353374
-0.673452
-0.66332
-0.788507
0.788446
0.702628
-0.721732
0.838008
0.575243
0.285134
0.877499
-0.527573
0.957457
0.535813
-0.827754
-0.267434
-0.1124
-0.82049
-0.76104
0.636708
0.569933
0.827754
-0.427717
0.713187
0.380902
-0.534959
0.875729
0.879879
0.482101
0.861446
-0.925596
0.65508
-0.56328
0.973144
0.363506
0.263466
-0.857784
-0.606311
-0.896664
0.198523
0.392254
-0.0807214
0.37608
0.805292
0.379681
-0.711722
0.0135807
-0.555956
-0.546251
0.160924
-0.0883511
-0.200232
-0.556261
-0.601856
-0.558885
0.897641
0.861141
-0.294961
0.769524
0.388348
-0.706656
-0.301187
0.905087
-0.334025
0.301736
0.46617
0.771172
-0.442671
-0.343242
0.819636
-0.557421
0.753716
-0.263466
-0.328166
-0.681326
0.706412
0.49913
-0.567919
0.163366
0.987671
-0.364849
0.807001
-0.478195
0.966979
0.0216987
-0.790887
0.0242622
-0.85107
-0.0419629
-0.699576
0.00643945
0.562792
-0.751274
-0.00778222
0.758843
0.263772
0.947325
0.465072
0.717277
0.0117496
-0.428144
0.770562
-0.0925016
0.187353
-0.393109
-0.422346
0.95642
0.00875878
-0.898312
0.62627
-0.0184637
0.112339
0.17954
0.449629
-0.32725
0.55858
-0.730583
0.929807
-0.122715
0.326334
0.872921
-0.753227
0.00125122
-0.641652
-0.321635
0.785272
0.540269
-0.78045
0.836238
-0.43968
0.0513016
-0.568957
-0.794488
-0.274148
0.878842
-0.457015
-0.929807
0.120029
0.342875
-0.622974
0.708548
-0.21366
-0.786004
0.313944
-0.233497
-0.55266
0.401532
0.212378
-0.22953
0.0919523
-0.763298
-0.815119
-0.93701
-0.350017
0.0559404
0.844478
-0.0605182
0.834407
0.924741
-0.617664
-0.337504
-0.653615
-0.728507
-0.0834681
-0.331523
-0.493332
-0.755547
-0.328654
0.277688
-0.625172
0.603442
0.551866
-0.778985
0.419416
-0.0406812
0.675527
-0.704642
-0.198584
0.173803
-0.576708
-0.539354
0.333598
0.731498
-0.427534
0.690542
0.177892
0.897763
-0.925535
0.889828
-0.656423
0.473373
0.0392163
0.190344
-0.950743
-0.0397656
-0.510544
0.938841
-0.990234
0.949095
-0.552965
-0.311869
0.712027
0.54265
0.91345
-0.494858
-0.258644
0.314676
0.41319
0.587634
-0.33903
-0.36961
-0.784783
-0.203223
-0.402448
-0.102451
-0.125889
0.36491
-0.518601
-0.186315
0.426923
0.791253
0.983459
-0.141209
-0.0458693
-0.727348
0.197852
0.69689
0.62505
-0.182043
0.548265
0.706351
0.355998
0.522691
-0.786126
0.952147
-0.85522
0.816401
0.637562
0.911252
-0.856929
-0.50499
-0.321574
-0.734672
-0.47026
0.351238
-0.0287179
-0.928343
0.247352
-0.785516
0.0560625
-0.374371
-0.33549
-0.785882
0.838801
0.327189
0.226783
0.0773034
0.947447
0.864009
-0.842402
0.274941
-0.45555
-0.977416
0.273476
-0.172582
-0.840632
0.442488
-0.0259102
0.583483
0.102817
-0.37785
-0.528733
-0.21659
-0.974548
0.493515
0.318644
